<?xml version="1.0"?>
<opencv_storage>
<stage8>
  <maxWeakCount>7</maxWeakCount>
  <stageThreshold>-7.8748874366283417e-002</stageThreshold>
  <weakClassifiers>
    <_>
      <internalNodes>
        0 -1 47885 861127135 168002067 1208025088 -805298176 -1526103671
        -2013200246 -2147382388 -7650677</internalNodes>
      <leafValues>
        -6.7714285850524902e-001 5.6999999284744263e-001</leafValues></_>
    <_>
      <internalNodes>
        0 -1 152550 -801058574 822678669 268980337 1347424257
        -2128576372 -1409286144 -1040176755 976880011</internalNodes>
      <leafValues>
        -7.0570594072341919e-001 4.9564245343208313e-001</leafValues></_>
    <_>
      <internalNodes>
        0 -1 129716 -2079582798 -218103804 1342181393 1238745360
        1076232842 1627455617 297861256 207480607</internalNodes>
      <leafValues>
        -7.9161620140075684e-001 4.7295409440994263e-001</leafValues></_>
    <_>
      <internalNodes>
        0 -1 50974 -670639993 1761608832 268505110 1096943104 -536049649
        1094811842 8396869 271288714</internalNodes>
      <leafValues>
        -7.3785179853439331e-001 5.6118792295455933e-001</leafValues></_>
    <_>
      <internalNodes>
        0 -1 55036 1091551698 -2147333607 -2130178024 1392578882
        -1610563574 176291848 67844101 1393230115</internalNodes>
      <leafValues>
        -8.0645900964736938e-001 5.1649969816207886e-001</leafValues></_>
    <_>
      <internalNodes>
        0 -1 152577 1410519180 -788070144 278397073 1359036581 50888842
        1275789312 940081290 455708170</internalNodes>
      <leafValues>
        -7.6666843891143799e-001 5.5838924646377563e-001</leafValues></_>
    <_>
      <internalNodes>
        0 -1 79244 1604108271 1056767983 -270663681 -42074114 -16842946
        1189903866 -167903235 -934940677</internalNodes>
      <leafValues>
        -6.2932485342025757e-001 7.0390480756759644e-001</leafValues></_></weakClassifiers></stage8>
</opencv_storage>
