<?xml version="1.0"?>
<opencv_storage>
<stage7>
  <maxWeakCount>6</maxWeakCount>
  <stageThreshold>-1.0652505606412888e-001</stageThreshold>
  <weakClassifiers>
    <_>
      <internalNodes>
        0 -1 67475 -6291461 -11141137 -54530445 -1704198225 -578835974
        1340596078 -827850789 -732436577</internalNodes>
      <leafValues>
        -6.1578947305679321e-001 7.7142858505249023e-001</leafValues></_>
    <_>
      <internalNodes>
        0 -1 38620 -636037155 1343225872 -2139041643 1493401602
        -2004721104 687875200 956911856 -609238117</internalNodes>
      <leafValues>
        -6.0685455799102783e-001 5.8060777187347412e-001</leafValues></_>
    <_>
      <internalNodes>
        0 -1 76007 2101289963 1073184758 2147450676 -8573122 -8503393
        -4867202 -1073752067 -134676516</internalNodes>
      <leafValues>
        -5.8561331033706665e-001 6.8494367599487305e-001</leafValues></_>
    <_>
      <internalNodes>
        0 -1 10277 -1181301773 2024275968 -2147466996 -587169663
        1174552729 1787429008 -937344832 -399448190</internalNodes>
      <leafValues>
        -7.0220291614532471e-001 5.9694302082061768e-001</leafValues></_>
    <_>
      <internalNodes>
        0 -1 150235 -783609638 1117323777 17829970 1073868867 737449
        168308736 -1073557286 -301219449</internalNodes>
      <leafValues>
        -6.1960405111312866e-001 6.5061467885971069e-001</leafValues></_>
    <_>
      <internalNodes>
        0 -1 79105 1761641687 -1727987647 268435840 1476460569 527004
        -402586944 8388744 -1060919158</internalNodes>
      <leafValues>
        -7.0469874143600464e-001 6.3173371553421021e-001</leafValues></_></weakClassifiers></stage7>
</opencv_storage>
