<?xml version="1.0"?>
<opencv_storage>
<stage6>
  <maxWeakCount>6</maxWeakCount>
  <stageThreshold>1.1961722373962402e-001</stageThreshold>
  <weakClassifiers>
    <_>
      <internalNodes>
        0 -1 9231 -746063365 1371635777 285 1368473600 -2013035987
        151750793 1359184672 -3153237</internalNodes>
      <leafValues>
        -7.3743921518325806e-001 3.3568903803825378e-001</leafValues></_>
    <_>
      <internalNodes>
        0 -1 98618 -375930230 -419364838 -1602222976 34930706
        -2087943650 -2061982528 -1073243686 -1746743149</internalNodes>
      <leafValues>
        -7.6732414960861206e-001 4.4779193401336670e-001</leafValues></_>
    <_>
      <internalNodes>
        0 -1 237 1528015843 -318631919 17318229 1800094081 -1065319621
        -6684670 -939496790 1367982287</internalNodes>
      <leafValues>
        -7.7076935768127441e-001 4.5217454433441162e-001</leafValues></_>
    <_>
      <internalNodes>
        0 -1 49761 -1055393963 -1693416432 285414617 -132169279
        -511094347 -1868890112 1384749281 1373473984</internalNodes>
      <leafValues>
        -7.3776799440383911e-001 4.9631214141845703e-001</leafValues></_>
    <_>
      <internalNodes>
        0 -1 144157 -2078587170 1359020036 1049750 33853700 -1056403303
        -1744732159 -931102533 1653592714</internalNodes>
      <leafValues>
        -8.1711381673812866e-001 4.8731988668441772e-001</leafValues></_>
    <_>
      <internalNodes>
        0 -1 149434 -782737716 1359134976 1090732049 318799944 855703950
        -2003304448 -1442772837 -569845348</internalNodes>
      <leafValues>
        -7.9523658752441406e-001 4.9983969330787659e-001</leafValues></_></weakClassifiers></stage6>
</opencv_storage>
