<?xml version="1.0"?>
<opencv_storage>
<stage4>
  <maxWeakCount>7</maxWeakCount>
  <stageThreshold>-2.4743030965328217e-001</stageThreshold>
  <weakClassifiers>
    <_>
      <internalNodes>
        0 -1 48512 -800267273 -1728001917 273940811 -74344191 269607076
        1489021064 -1065252368 -68170853</internalNodes>
      <leafValues>
        -8.0412369966506958e-001 3.3962264657020569e-001</leafValues></_>
    <_>
      <internalNodes>
        0 -1 8176 -193856569 -685901552 -1608511467 -418704687
        1615245998 906597706 -1641963389 -608183301</internalNodes>
      <leafValues>
        -6.6900479793548584e-001 5.3469461202621460e-001</leafValues></_>
    <_>
      <internalNodes>
        0 -1 99377 -552103218 212265758 286349332 67682311 268968184
        -787971832 -777948791 -874777685</internalNodes>
      <leafValues>
        -8.2259541749954224e-001 4.5170682668685913e-001</leafValues></_>
    <_>
      <internalNodes>
        0 -1 134107 -935011847 -619462269 249907 84494867 -668802017
        -1601683327 -788287269 247983007</internalNodes>
      <leafValues>
        -7.1107882261276245e-001 5.4332619905471802e-001</leafValues></_>
    <_>
      <internalNodes>
        0 -1 121587 1108560477 1393182979 1360298266 -1299967254
        537403529 -1809121149 -1870023973 -129273551</internalNodes>
      <leafValues>
        -6.8808585405349731e-001 6.2299525737762451e-001</leafValues></_>
    <_>
      <internalNodes>
        0 -1 19913 -120589834 1560281115 286261400 -746487280
        -1156877844 438896769 -1558052692 2003654803</internalNodes>
      <leafValues>
        -7.8065139055252075e-001 5.5161744356155396e-001</leafValues></_>
    <_>
      <internalNodes>
        0 -1 149215 -832764937 1913360408 1476510033 -1878761196 1042058
        -889134973 -499988136 -225916504</internalNodes>
      <leafValues>
        -7.1970033645629883e-001 6.2625885009765625e-001</leafValues></_></weakClassifiers></stage4>
</opencv_storage>
