<?xml version="1.0"?>
<opencv_storage>
<stage9>
  <maxWeakCount>6</maxWeakCount>
  <stageThreshold>-5.4915475845336914e-001</stageThreshold>
  <weakClassifiers>
    <_>
      <internalNodes>
        0 -1 152520 -19021605 -2391 -1424721025 466956297 -560161045
        -646021156 191726329 -542375970</internalNodes>
      <leafValues>
        -6.4054054021835327e-001 7.1249997615814209e-001</leafValues></_>
    <_>
      <internalNodes>
        0 -1 125243 -518797858 67279512 553992218 33706130 33704201
        1610809344 445186433 433840363</internalNodes>
      <leafValues>
        -7.9498374462127686e-001 4.3584045767784119e-001</leafValues></_>
    <_>
      <internalNodes>
        0 -1 70685 -95169929 -1065287278 -1874751278 -1870594048
        -1962835927 42074113 983259 1661987279</internalNodes>
      <leafValues>
        -6.4174050092697144e-001 6.0878717899322510e-001</leafValues></_>
    <_>
      <internalNodes>
        0 -1 60274 -1055139602 453067153 16827864 1073750159 285868170
        1208483842 4853830 331866703</internalNodes>
      <leafValues>
        -7.6738119125366211e-001 5.2524638175964355e-001</leafValues></_>
    <_>
      <internalNodes>
        0 -1 124991 1091781017 -536701940 1342259749 152354840 116744
        1023934466 147466 1804333194</internalNodes>
      <leafValues>
        -7.4359637498855591e-001 5.3921288251876831e-001</leafValues></_>
    <_>
      <internalNodes>
        0 -1 7542 285280190 1358987413 -1878999023 1090535426 1216905384
        -1475852288 168323468 -159059728</internalNodes>
      <leafValues>
        -7.6717334985733032e-001 5.4875016212463379e-001</leafValues></_></weakClassifiers></stage9>
</opencv_storage>
