<?xml version="1.0"?>
<opencv_storage>
<stage5>
  <maxWeakCount>8</maxWeakCount>
  <stageThreshold>-1.0323917865753174e+000</stageThreshold>
  <weakClassifiers>
    <_>
      <internalNodes>
        0 -1 1369676 -1.7450649291276932e-002</internalNodes>
      <leafValues>
        5.4117649793624878e-001 -6.1388885974884033e-001</leafValues></_>
    <_>
      <internalNodes>
        0 -1 2971450 2.3924173787236214e-002</internalNodes>
      <leafValues>
        -7.9077559709548950e-001 2.1251082420349121e-001</leafValues></_>
    <_>
      <internalNodes>
        0 -1 115103 -7.6459455303847790e-003</internalNodes>
      <leafValues>
        3.8352754712104797e-001 -5.0319194793701172e-001</leafValues></_>
    <_>
      <internalNodes>
        0 -1 4215700 -2.6753055863082409e-005</internalNodes>
      <leafValues>
        3.2360839843750000e-001 -6.8830317258834839e-001</leafValues></_>
    <_>
      <internalNodes>
        0 -1 1781074 -4.1077900677919388e-003</internalNodes>
      <leafValues>
        -6.5003830194473267e-001 2.4144868552684784e-001</leafValues></_>
    <_>
      <internalNodes>
        0 -1 2334254 7.3021755088120699e-004</internalNodes>
      <leafValues>
        2.1172870695590973e-001 -7.7085506916046143e-001</leafValues></_>
    <_>
      <internalNodes>
        0 -1 1618410 -1.3994871405884624e-003</internalNodes>
      <leafValues>
        3.6004462838172913e-001 -4.8703119158744812e-001</leafValues></_>
    <_>
      <internalNodes>
        0 -1 2135723 -6.8922610953450203e-003</internalNodes>
      <leafValues>
        8.4110206365585327e-001 -2.5274059176445007e-001</leafValues></_></weakClassifiers></stage5>
</opencv_storage>
